digraph Tree {
node [shape=box, fontname="helvetica"] ;
edge [fontname="helvetica"] ;
0 [label="X3 distance to the nearest MRT station <= 981.578\nsquared_error = 187.445\nsamples = 331\nvalue = 37.976"] ;
1 [label="X3 distance to the nearest MRT station <= 330.03\nsquared_error = 120.835\nsamples = 215\nvalue = 44.939"] ;
0 -> 1 [labeldistance=2.5, labelangle=45, headlabel="True"] ;
2 [label="X3 distance to the nearest MRT station <= 291.161\nsquared_error = 138.702\nsamples = 98\nvalue = 50.124"] ;
1 -> 2 ;
3 [label="X3 distance to the nearest MRT station <= 125.86\nsquared_error = 122.804\nsamples = 87\nvalue = 48.697"] ;
2 -> 3 ;
4 [label="X3 distance to the nearest MRT station <= 113.586\nsquared_error = 48.302\nsamples = 29\nvalue = 52.859"] ;
3 -> 4 ;
5 [label="X3 distance to the nearest MRT station <= 88.879\nsquared_error = 40.739\nsamples = 27\nvalue = 52.019"] ;
4 -> 5 ;
6 [label="X3 distance to the nearest MRT station <= 57.032\nsquared_error = 36.038\nsamples = 10\nvalue = 49.42"] ;
5 -> 6 ;
7 [label="X3 distance to the nearest MRT station <= 36.522\nsquared_error = 13.011\nsamples = 6\nvalue = 53.317"] ;
6 -> 7 ;
8 [label="squared_error = 1.0\nsamples = 2\nvalue = 48.7"] ;
7 -> 8 ;
9 [label="X3 distance to the nearest MRT station <= 53.068\nsquared_error = 3.032\nsamples = 4\nvalue = 55.625"] ;
7 -> 9 ;
10 [label="squared_error = 0.25\nsamples = 2\nvalue = 57.3"] ;
9 -> 10 ;
11 [label="squared_error = 0.202\nsamples = 2\nvalue = 53.95"] ;
9 -> 11 ;
12 [label="X3 distance to the nearest MRT station <= 86.091\nsquared_error = 13.637\nsamples = 4\nvalue = 43.575"] ;
6 -> 12 ;
13 [label="X3 distance to the nearest MRT station <= 83.883\nsquared_error = 12.66\nsamples = 3\nvalue = 42.4"] ;
12 -> 13 ;
14 [label="X3 distance to the nearest MRT station <= 70.238\nsquared_error = 3.802\nsamples = 2\nvalue = 44.65"] ;
13 -> 14 ;
15 [label="squared_error = 0.0\nsamples = 1\nvalue = 42.7"] ;
14 -> 15 ;
16 [label="squared_error = -0.0\nsamples = 1\nvalue = 46.6"] ;
14 -> 16 ;
17 [label="squared_error = -0.0\nsamples = 1\nvalue = 37.9"] ;
13 -> 17 ;
18 [label="squared_error = 0.0\nsamples = 1\nvalue = 47.1"] ;
12 -> 18 ;
19 [label="X3 distance to the nearest MRT station <= 97.633\nsquared_error = 37.197\nsamples = 17\nvalue = 53.547"] ;
5 -> 19 ;
20 [label="squared_error = 12.067\nsamples = 9\nvalue = 57.1"] ;
19 -> 20 ;
21 [label="squared_error = 35.29\nsamples = 8\nvalue = 49.55"] ;
19 -> 21 ;
22 [label="X3 distance to the nearest MRT station <= 123.677\nsquared_error = 12.25\nsamples = 2\nvalue = 64.2"] ;
4 -> 22 ;
23 [label="squared_error = 0.0\nsamples = 1\nvalue = 67.7"] ;
22 -> 23 ;
24 [label="squared_error = 0.0\nsamples = 1\nvalue = 60.7"] ;
22 -> 24 ;
25 [label="X3 distance to the nearest MRT station <= 188.5\nsquared_error = 147.062\nsamples = 58\nvalue = 46.616"] ;
3 -> 25 ;
26 [label="X3 distance to the nearest MRT station <= 153.589\nsquared_error = 45.72\nsamples = 21\nvalue = 42.129"] ;
25 -> 26 ;
27 [label="X3 distance to the nearest MRT station <= 131.771\nsquared_error = 27.662\nsamples = 5\nvalue = 46.82"] ;
26 -> 27 ;
28 [label="X3 distance to the nearest MRT station <= 128.862\nsquared_error = 30.25\nsamples = 2\nvalue = 42.7"] ;
27 -> 28 ;
29 [label="squared_error = 0.0\nsamples = 1\nvalue = 48.2"] ;
28 -> 29 ;
30 [label="squared_error = 0.0\nsamples = 1\nvalue = 37.2"] ;
28 -> 30 ;
31 [label="X3 distance to the nearest MRT station <= 138.193\nsquared_error = 7.076\nsamples = 3\nvalue = 49.567"] ;
27 -> 31 ;
32 [label="squared_error = 0.0\nsamples = 1\nvalue = 47.3"] ;
31 -> 32 ;
33 [label="X3 distance to the nearest MRT station <= 147.386\nsquared_error = 6.76\nsamples = 2\nvalue = 50.7"] ;
31 -> 33 ;
34 [label="squared_error = 0.0\nsamples = 1\nvalue = 53.3"] ;
33 -> 34 ;
35 [label="squared_error = -0.0\nsamples = 1\nvalue = 48.1"] ;
33 -> 35 ;
36 [label="X3 distance to the nearest MRT station <= 180.265\nsquared_error = 42.336\nsamples = 16\nvalue = 40.662"] ;
26 -> 36 ;
37 [label="X3 distance to the nearest MRT station <= 168.864\nsquared_error = 15.33\nsamples = 9\nvalue = 37.689"] ;
36 -> 37 ;
38 [label="X3 distance to the nearest MRT station <= 156.925\nsquared_error = 3.187\nsamples = 4\nvalue = 39.775"] ;
37 -> 38 ;
39 [label="squared_error = 0.0\nsamples = 1\nvalue = 36.9"] ;
38 -> 39 ;
40 [label="X3 distance to the nearest MRT station <= 159.774\nsquared_error = 0.576\nsamples = 3\nvalue = 40.733"] ;
38 -> 40 ;
41 [label="squared_error = 0.0\nsamples = 1\nvalue = 41.5"] ;
40 -> 41 ;
42 [label="X3 distance to the nearest MRT station <= 164.77\nsquared_error = 0.422\nsamples = 2\nvalue = 40.35"] ;
40 -> 42 ;
43 [label="squared_error = 0.0\nsamples = 1\nvalue = 39.7"] ;
42 -> 43 ;
44 [label="squared_error = 0.0\nsamples = 1\nvalue = 41.0"] ;
42 -> 44 ;
45 [label="X3 distance to the nearest MRT station <= 172.879\nsquared_error = 18.778\nsamples = 5\nvalue = 36.02"] ;
37 -> 45 ;
46 [label="squared_error = 10.702\nsamples = 3\nvalue = 33.167"] ;
45 -> 46 ;
47 [label="X3 distance to the nearest MRT station <= 177.542\nsquared_error = 0.36\nsamples = 2\nvalue = 40.3"] ;
45 -> 47 ;
48 [label="squared_error = 0.0\nsamples = 1\nvalue = 40.9"] ;
47 -> 48 ;
49 [label="squared_error = 0.0\nsamples = 1\nvalue = 39.7"] ;
47 -> 49 ;
50 [label="X3 distance to the nearest MRT station <= 186.456\nsquared_error = 51.073\nsamples = 7\nvalue = 44.486"] ;
36 -> 50 ;
51 [label="X3 distance to the nearest MRT station <= 182.703\nsquared_error = 34.378\nsamples = 6\nvalue = 46.383"] ;
50 -> 51 ;
52 [label="squared_error = 0.0\nsamples = 1\nvalue = 42.0"] ;
51 -> 52 ;
53 [label="X3 distance to the nearest MRT station <= 184.88\nsquared_error = 36.642\nsamples = 5\nvalue = 47.26"] ;
51 -> 53 ;
54 [label="squared_error = 0.0\nsamples = 1\nvalue = 45.4"] ;
53 -> 54 ;
55 [label="squared_error = 44.722\nsamples = 4\nvalue = 47.725"] ;
53 -> 55 ;
56 [label="squared_error = -0.0\nsamples = 1\nvalue = 33.1"] ;
50 -> 56 ;
57 [label="X3 distance to the nearest MRT station <= 262.361\nsquared_error = 186.668\nsamples = 37\nvalue = 49.162"] ;
25 -> 57 ;
58 [label="X3 distance to the nearest MRT station <= 251.607\nsquared_error = 298.918\nsamples = 18\nvalue = 51.394"] ;
57 -> 58 ;
59 [label="X3 distance to the nearest MRT station <= 206.879\nsquared_error = 25.354\nsamples = 15\nvalue = 47.207"] ;
58 -> 59 ;
60 [label="X3 distance to the nearest MRT station <= 199.514\nsquared_error = 24.553\nsamples = 11\nvalue = 48.727"] ;
59 -> 60 ;
61 [label="X3 distance to the nearest MRT station <= 195.101\nsquared_error = 19.57\nsamples = 8\nvalue = 47.1"] ;
60 -> 61 ;
62 [label="X3 distance to the nearest MRT station <= 191.551\nsquared_error = 8.482\nsamples = 6\nvalue = 49.15"] ;
61 -> 62 ;
63 [label="squared_error = 0.0\nsamples = 1\nvalue = 47.1"] ;
62 -> 63 ;
64 [label="squared_error = 9.17\nsamples = 5\nvalue = 49.56"] ;
62 -> 64 ;
65 [label="X3 distance to the nearest MRT station <= 196.876\nsquared_error = 2.403\nsamples = 2\nvalue = 40.95"] ;
61 -> 65 ;
66 [label="squared_error = 0.0\nsamples = 1\nvalue = 39.4"] ;
65 -> 66 ;
67 [label="squared_error = -0.0\nsamples = 1\nvalue = 42.5"] ;
65 -> 67 ;
68 [label="X3 distance to the nearest MRT station <= 203.032\nsquared_error = 11.949\nsamples = 3\nvalue = 53.067"] ;
60 -> 68 ;
69 [label="squared_error = 0.0\nsamples = 1\nvalue = 55.9"] ;
68 -> 69 ;
70 [label="X3 distance to the nearest MRT station <= 204.769\nsquared_error = 11.902\nsamples = 2\nvalue = 51.65"] ;
68 -> 70 ;
71 [label="squared_error = 0.0\nsamples = 1\nvalue = 48.2"] ;
70 -> 71 ;
72 [label="squared_error = -0.0\nsamples = 1\nvalue = 55.1"] ;
70 -> 72 ;
73 [label="X3 distance to the nearest MRT station <= 212.612\nsquared_error = 3.712\nsamples = 4\nvalue = 43.025"] ;
59 -> 73 ;
74 [label="squared_error = 0.723\nsamples = 2\nvalue = 44.85"] ;
73 -> 74 ;
75 [label="X3 distance to the nearest MRT station <= 233.732\nsquared_error = 0.04\nsamples = 2\nvalue = 41.2"] ;
73 -> 75 ;
76 [label="squared_error = 0.0\nsamples = 1\nvalue = 41.0"] ;
75 -> 76 ;
77 [label="squared_error = -0.0\nsamples = 1\nvalue = 41.4"] ;
75 -> 77 ;
78 [label="X3 distance to the nearest MRT station <= 255.384\nsquared_error = 1140.616\nsamples = 3\nvalue = 72.333"] ;
58 -> 78 ;
79 [label="squared_error = 0.0\nsamples = 1\nvalue = 117.5"] ;
78 -> 79 ;
80 [label="X3 distance to the nearest MRT station <= 258.923\nsquared_error = 180.903\nsamples = 2\nvalue = 49.75"] ;
78 -> 80 ;
81 [label="squared_error = 0.0\nsamples = 1\nvalue = 36.3"] ;
80 -> 81 ;
82 [label="squared_error = 0.0\nsamples = 1\nvalue = 63.2"] ;
80 -> 82 ;
83 [label="X3 distance to the nearest MRT station <= 277.811\nsquared_error = 71.133\nsamples = 19\nvalue = 47.047"] ;
57 -> 83 ;
84 [label="X3 distance to the nearest MRT station <= 273.346\nsquared_error = 63.671\nsamples = 6\nvalue = 39.883"] ;
83 -> 84 ;
85 [label="X3 distance to the nearest MRT station <= 271.784\nsquared_error = 48.909\nsamples = 3\nvalue = 36.667"] ;
84 -> 85 ;
86 [label="X3 distance to the nearest MRT station <= 267.975\nsquared_error = 1.823\nsamples = 2\nvalue = 41.55"] ;
85 -> 86 ;
87 [label="squared_error = 0.0\nsamples = 1\nvalue = 40.2"] ;
86 -> 87 ;
88 [label="squared_error = 0.0\nsamples = 1\nvalue = 42.9"] ;
86 -> 88 ;
89 [label="squared_error = -0.0\nsamples = 1\nvalue = 26.9"] ;
85 -> 89 ;
90 [label="X3 distance to the nearest MRT station <= 275.232\nsquared_error = 57.74\nsamples = 3\nvalue = 43.1"] ;
84 -> 90 ;
91 [label="squared_error = 18.922\nsamples = 2\nvalue = 47.85"] ;
90 -> 91 ;
92 [label="squared_error = 0.0\nsamples = 1\nvalue = 33.6"] ;
90 -> 92 ;
93 [label="X3 distance to the nearest MRT station <= 285.265\nsquared_error = 39.956\nsamples = 13\nvalue = 50.354"] ;
83 -> 93 ;
94 [label="X3 distance to the nearest MRT station <= 280.189\nsquared_error = 59.29\nsamples = 2\nvalue = 55.6"] ;
93 -> 94 ;
95 [label="squared_error = 0.0\nsamples = 1\nvalue = 47.9"] ;
94 -> 95 ;
96 [label="squared_error = 0.0\nsamples = 1\nvalue = 63.3"] ;
94 -> 96 ;
97 [label="squared_error = 30.527\nsamples = 11\nvalue = 49.4"] ;
93 -> 97 ;
98 [label="X3 distance to the nearest MRT station <= 318.8\nsquared_error = 120.771\nsamples = 11\nvalue = 61.418"] ;
2 -> 98 ;
99 [label="X3 distance to the nearest MRT station <= 305.764\nsquared_error = 19.589\nsamples = 6\nvalue = 70.95"] ;
98 -> 99 ;
100 [label="squared_error = 11.578\nsamples = 5\nvalue = 69.54"] ;
99 -> 100 ;
101 [label="squared_error = 0.0\nsamples = 1\nvalue = 78.0"] ;
99 -> 101 ;
102 [label="X3 distance to the nearest MRT station <= 323.673\nsquared_error = 2.33\nsamples = 5\nvalue = 49.98"] ;
98 -> 102 ;
103 [label="X3 distance to the nearest MRT station <= 321.363\nsquared_error = 0.903\nsamples = 2\nvalue = 48.35"] ;
102 -> 103 ;
104 [label="squared_error = 0.0\nsamples = 1\nvalue = 47.4"] ;
103 -> 104 ;
105 [label="squared_error = 0.0\nsamples = 1\nvalue = 49.3"] ;
103 -> 105 ;
106 [label="X3 distance to the nearest MRT station <= 326.833\nsquared_error = 0.329\nsamples = 3\nvalue = 51.067"] ;
102 -> 106 ;
107 [label="squared_error = 0.0\nsamples = 1\nvalue = 51.0"] ;
106 -> 107 ;
108 [label="squared_error = 0.49\nsamples = 2\nvalue = 51.1"] ;
106 -> 108 ;
109 [label="X3 distance to the nearest MRT station <= 390.769\nsquared_error = 64.483\nsamples = 117\nvalue = 40.596"] ;
1 -> 109 ;
110 [label="X3 distance to the nearest MRT station <= 373.616\nsquared_error = 54.075\nsamples = 29\nvalue = 43.479"] ;
109 -> 110 ;
111 [label="X3 distance to the nearest MRT station <= 345.04\nsquared_error = 31.302\nsamples = 13\nvalue = 39.477"] ;
110 -> 111 ;
112 [label="X3 distance to the nearest MRT station <= 339.098\nsquared_error = 59.809\nsamples = 6\nvalue = 37.95"] ;
111 -> 112 ;
113 [label="X3 distance to the nearest MRT station <= 338.285\nsquared_error = 40.306\nsamples = 5\nvalue = 40.24"] ;
112 -> 113 ;
114 [label="X3 distance to the nearest MRT station <= 331.727\nsquared_error = 15.535\nsamples = 4\nvalue = 37.6"] ;
113 -> 114 ;
115 [label="squared_error = 0.0\nsamples = 1\nvalue = 43.4"] ;
114 -> 115 ;
116 [label="X3 distance to the nearest MRT station <= 334.448\nsquared_error = 5.762\nsamples = 3\nvalue = 35.667"] ;
114 -> 116 ;
117 [label="squared_error = 0.0\nsamples = 1\nvalue = 32.4"] ;
116 -> 117 ;
118 [label="X3 distance to the nearest MRT station <= 336.564\nsquared_error = 0.64\nsamples = 2\nvalue = 37.3"] ;
116 -> 118 ;
119 [label="squared_error = 0.0\nsamples = 1\nvalue = 38.1"] ;
118 -> 119 ;
120 [label="squared_error = 0.0\nsamples = 1\nvalue = 36.5"] ;
118 -> 120 ;
121 [label="squared_error = -0.0\nsamples = 1\nvalue = 50.8"] ;
113 -> 121 ;
122 [label="squared_error = 0.0\nsamples = 1\nvalue = 26.5"] ;
112 -> 122 ;
123 [label="X3 distance to the nearest MRT station <= 373.009\nsquared_error = 3.156\nsamples = 7\nvalue = 40.786"] ;
111 -> 123 ;
124 [label="X3 distance to the nearest MRT station <= 359.494\nsquared_error = 3.36\nsamples = 6\nvalue = 41.0"] ;
123 -> 124 ;
125 [label="squared_error = 8.122\nsamples = 2\nvalue = 40.25"] ;
124 -> 125 ;
126 [label="X3 distance to the nearest MRT station <= 371.694\nsquared_error = 0.557\nsamples = 4\nvalue = 41.375"] ;
124 -> 126 ;
127 [label="X3 distance to the nearest MRT station <= 369.693\nsquared_error = 0.04\nsamples = 2\nvalue = 42.1"] ;
126 -> 127 ;
128 [label="squared_error = 0.0\nsamples = 1\nvalue = 42.3"] ;
127 -> 128 ;
129 [label="squared_error = 0.0\nsamples = 1\nvalue = 41.9"] ;
127 -> 129 ;
130 [label="X3 distance to the nearest MRT station <= 372.381\nsquared_error = 0.022\nsamples = 2\nvalue = 40.65"] ;
126 -> 130 ;
131 [label="squared_error = 0.0\nsamples = 1\nvalue = 40.5"] ;
130 -> 131 ;
132 [label="squared_error = 0.0\nsamples = 1\nvalue = 40.8"] ;
130 -> 132 ;
133 [label="squared_error = 0.0\nsamples = 1\nvalue = 39.5"] ;
123 -> 133 ;
134 [label="X3 distance to the nearest MRT station <= 375.817\nsquared_error = 48.988\nsamples = 16\nvalue = 46.731"] ;
110 -> 134 ;
135 [label="squared_error = 0.0\nsamples = 1\nvalue = 61.9"] ;
134 -> 135 ;
136 [label="X3 distance to the nearest MRT station <= 378.694\nsquared_error = 35.892\nsamples = 15\nvalue = 45.72"] ;
134 -> 136 ;
137 [label="X3 distance to the nearest MRT station <= 377.813\nsquared_error = 0.81\nsamples = 2\nvalue = 37.7"] ;
136 -> 137 ;
138 [label="squared_error = 0.0\nsamples = 1\nvalue = 36.8"] ;
137 -> 138 ;
139 [label="squared_error = -0.0\nsamples = 1\nvalue = 38.6"] ;
137 -> 139 ;
140 [label="X3 distance to the nearest MRT station <= 385.817\nsquared_error = 29.872\nsamples = 13\nvalue = 46.954"] ;
136 -> 140 ;
141 [label="X3 distance to the nearest MRT station <= 383.788\nsquared_error = 32.665\nsamples = 7\nvalue = 48.843"] ;
140 -> 141 ;
142 [label="X3 distance to the nearest MRT station <= 383.497\nsquared_error = 7.934\nsamples = 5\nvalue = 45.62"] ;
141 -> 142 ;
143 [label="X3 distance to the nearest MRT station <= 381.419\nsquared_error = 7.995\nsamples = 4\nvalue = 45.0"] ;
142 -> 143 ;
144 [label="squared_error = 8.41\nsamples = 2\nvalue = 46.9"] ;
143 -> 144 ;
145 [label="squared_error = 0.36\nsamples = 2\nvalue = 43.1"] ;
143 -> 145 ;
146 [label="squared_error = 0.0\nsamples = 1\nvalue = 48.1"] ;
142 -> 146 ;
147 [label="squared_error = 3.61\nsamples = 2\nvalue = 56.9"] ;
141 -> 147 ;
148 [label="X3 distance to the nearest MRT station <= 390.195\nsquared_error = 17.593\nsamples = 6\nvalue = 44.75"] ;
140 -> 148 ;
149 [label="X3 distance to the nearest MRT station <= 388.797\nsquared_error = 3.829\nsamples = 3\nvalue = 43.367"] ;
148 -> 149 ;
150 [label="squared_error = 0.003\nsamples = 2\nvalue = 44.75"] ;
149 -> 150 ;
151 [label="squared_error = 0.0\nsamples = 1\nvalue = 40.6"] ;
149 -> 151 ;
152 [label="squared_error = 27.529\nsamples = 3\nvalue = 46.133"] ;
148 -> 152 ;
153 [label="X3 distance to the nearest MRT station <= 398.778\nsquared_error = 64.269\nsamples = 88\nvalue = 39.645"] ;
109 -> 153 ;
154 [label="X3 distance to the nearest MRT station <= 391.708\nsquared_error = 151.778\nsamples = 5\nvalue = 28.84"] ;
153 -> 154 ;
155 [label="squared_error = 0.0\nsamples = 1\nvalue = 40.6"] ;
154 -> 155 ;
156 [label="X3 distance to the nearest MRT station <= 393.639\nsquared_error = 146.505\nsamples = 4\nvalue = 25.9"] ;
154 -> 156 ;
157 [label="X3 distance to the nearest MRT station <= 392.853\nsquared_error = 131.102\nsamples = 2\nvalue = 19.05"] ;
156 -> 157 ;
158 [label="squared_error = 0.0\nsamples = 1\nvalue = 30.5"] ;
157 -> 158 ;
159 [label="squared_error = -0.0\nsamples = 1\nvalue = 7.6"] ;
157 -> 159 ;
160 [label="X3 distance to the nearest MRT station <= 394.846\nsquared_error = 68.062\nsamples = 2\nvalue = 32.75"] ;
156 -> 160 ;
161 [label="squared_error = 0.0\nsamples = 1\nvalue = 41.0"] ;
160 -> 161 ;
162 [label="squared_error = 0.0\nsamples = 1\nvalue = 24.5"] ;
160 -> 162 ;
163 [label="X3 distance to the nearest MRT station <= 810.311\nsquared_error = 51.54\nsamples = 83\nvalue = 40.296"] ;
153 -> 163 ;
164 [label="X3 distance to the nearest MRT station <= 787.047\nsquared_error = 51.88\nsamples = 74\nvalue = 40.772"] ;
163 -> 164 ;
165 [label="X3 distance to the nearest MRT station <= 763.371\nsquared_error = 45.791\nsamples = 73\nvalue = 40.468"] ;
164 -> 165 ;
166 [label="X3 distance to the nearest MRT station <= 526.469\nsquared_error = 43.057\nsamples = 72\nvalue = 40.683"] ;
165 -> 166 ;
167 [label="X3 distance to the nearest MRT station <= 456.173\nsquared_error = 31.57\nsamples = 36\nvalue = 39.589"] ;
166 -> 167 ;
168 [label="X3 distance to the nearest MRT station <= 447.689\nsquared_error = 61.927\nsamples = 10\nvalue = 41.91"] ;
167 -> 168 ;
169 [label="X3 distance to the nearest MRT station <= 427.912\nsquared_error = 40.322\nsamples = 9\nvalue = 40.222"] ;
168 -> 169 ;
170 [label="X3 distance to the nearest MRT station <= 423.012\nsquared_error = 50.642\nsamples = 4\nvalue = 37.675"] ;
169 -> 170 ;
171 [label="X3 distance to the nearest MRT station <= 411.68\nsquared_error = 50.41\nsamples = 2\nvalue = 42.2"] ;
170 -> 171 ;
172 [label="squared_error = 0.0\nsamples = 1\nvalue = 35.1"] ;
171 -> 172 ;
173 [label="squared_error = -0.0\nsamples = 1\nvalue = 49.3"] ;
171 -> 173 ;
174 [label="X3 distance to the nearest MRT station <= 424.629\nsquared_error = 9.923\nsamples = 2\nvalue = 33.15"] ;
170 -> 174 ;
175 [label="squared_error = 0.0\nsamples = 1\nvalue = 36.3"] ;
174 -> 175 ;
176 [label="squared_error = -0.0\nsamples = 1\nvalue = 30.0"] ;
174 -> 176 ;
177 [label="X3 distance to the nearest MRT station <= 435.875\nsquared_error = 22.722\nsamples = 5\nvalue = 42.26"] ;
169 -> 177 ;
178 [label="X3 distance to the nearest MRT station <= 431.575\nsquared_error = 2.722\nsamples = 2\nvalue = 46.85"] ;
177 -> 178 ;
179 [label="squared_error = 0.0\nsamples = 1\nvalue = 48.5"] ;
178 -> 179 ;
180 [label="squared_error = -0.0\nsamples = 1\nvalue = 45.2"] ;
178 -> 180 ;
181 [label="X3 distance to the nearest MRT station <= 443.968\nsquared_error = 12.647\nsamples = 3\nvalue = 39.2"] ;
177 -> 181 ;
182 [label="X3 distance to the nearest MRT station <= 441.756\nsquared_error = 2.403\nsamples = 2\nvalue = 36.85"] ;
181 -> 182 ;
183 [label="squared_error = 0.0\nsamples = 1\nvalue = 38.4"] ;
182 -> 183 ;
184 [label="squared_error = 0.0\nsamples = 1\nvalue = 35.3"] ;
182 -> 184 ;
185 [label="squared_error = -0.0\nsamples = 1\nvalue = 43.9"] ;
181 -> 185 ;
186 [label="squared_error = -0.0\nsamples = 1\nvalue = 57.1"] ;
168 -> 186 ;
187 [label="X3 distance to the nearest MRT station <= 462.874\nsquared_error = 17.026\nsamples = 26\nvalue = 38.696"] ;
167 -> 187 ;
188 [label="X3 distance to the nearest MRT station <= 461.443\nsquared_error = 1.025\nsamples = 4\nvalue = 34.3"] ;
187 -> 188 ;
189 [label="squared_error = 0.496\nsamples = 3\nvalue = 33.833"] ;
188 -> 189 ;
190 [label="squared_error = -0.0\nsamples = 1\nvalue = 35.7"] ;
188 -> 190 ;
191 [label="X3 distance to the nearest MRT station <= 512.668\nsquared_error = 15.782\nsamples = 22\nvalue = 39.495"] ;
187 -> 191 ;
192 [label="X3 distance to the nearest MRT station <= 489.227\nsquared_error = 14.882\nsamples = 19\nvalue = 40.142"] ;
191 -> 192 ;
193 [label="X3 distance to the nearest MRT station <= 468.068\nsquared_error = 8.198\nsamples = 6\nvalue = 38.017"] ;
192 -> 193 ;
194 [label="squared_error = 0.0\nsamples = 1\nvalue = 42.0"] ;
193 -> 194 ;
195 [label="X3 distance to the nearest MRT station <= 485.665\nsquared_error = 6.03\nsamples = 5\nvalue = 37.22"] ;
193 -> 195 ;
196 [label="X3 distance to the nearest MRT station <= 476.436\nsquared_error = 4.687\nsamples = 4\nvalue = 37.975"] ;
195 -> 196 ;
197 [label="squared_error = 0.0\nsamples = 1\nvalue = 36.5"] ;
196 -> 197 ;
198 [label="X3 distance to the nearest MRT station <= 481.728\nsquared_error = 5.282\nsamples = 3\nvalue = 38.467"] ;
196 -> 198 ;
199 [label="squared_error = 0.0\nsamples = 1\nvalue = 38.8"] ;
198 -> 199 ;
200 [label="squared_error = 7.84\nsamples = 2\nvalue = 38.3"] ;
198 -> 200 ;
201 [label="squared_error = 0.0\nsamples = 1\nvalue = 34.2"] ;
195 -> 201 ;
202 [label="X3 distance to the nearest MRT station <= 509.332\nsquared_error = 14.92\nsamples = 13\nvalue = 41.123"] ;
192 -> 202 ;
203 [label="X3 distance to the nearest MRT station <= 490.113\nsquared_error = 16.436\nsamples = 11\nvalue = 40.718"] ;
202 -> 203 ;
204 [label="squared_error = 0.0\nsamples = 1\nvalue = 43.2"] ;
203 -> 204 ;
205 [label="X3 distance to the nearest MRT station <= 491.288\nsquared_error = 17.402\nsamples = 10\nvalue = 40.47"] ;
203 -> 205 ;
206 [label="squared_error = 0.0\nsamples = 1\nvalue = 37.0"] ;
205 -> 206 ;
207 [label="X3 distance to the nearest MRT station <= 499.173\nsquared_error = 17.849\nsamples = 9\nvalue = 40.856"] ;
205 -> 207 ;
208 [label="squared_error = 20.037\nsamples = 8\nvalue = 40.925"] ;
207 -> 208 ;
209 [label="squared_error = -0.0\nsamples = 1\nvalue = 40.3"] ;
207 -> 209 ;
210 [label="squared_error = 0.723\nsamples = 2\nvalue = 43.35"] ;
202 -> 210 ;
211 [label="X3 distance to the nearest MRT station <= 513.95\nsquared_error = 2.06\nsamples = 3\nvalue = 35.4"] ;
191 -> 211 ;
212 [label="squared_error = 0.0\nsamples = 1\nvalue = 34.1"] ;
211 -> 212 ;
213 [label="X3 distance to the nearest MRT station <= 517.287\nsquared_error = 1.823\nsamples = 2\nvalue = 36.05"] ;
211 -> 213 ;
214 [label="squared_error = 0.0\nsamples = 1\nvalue = 37.4"] ;
213 -> 214 ;
215 [label="squared_error = 0.0\nsamples = 1\nvalue = 34.7"] ;
213 -> 215 ;
216 [label="X3 distance to the nearest MRT station <= 582.925\nsquared_error = 52.148\nsamples = 36\nvalue = 41.778"] ;
166 -> 216 ;
217 [label="X3 distance to the nearest MRT station <= 534.502\nsquared_error = 29.248\nsamples = 13\nvalue = 46.292"] ;
216 -> 217 ;
218 [label="squared_error = 44.696\nsamples = 3\nvalue = 49.733"] ;
217 -> 218 ;
219 [label="X3 distance to the nearest MRT station <= 547.638\nsquared_error = 19.996\nsamples = 10\nvalue = 45.26"] ;
217 -> 219 ;
220 [label="X3 distance to the nearest MRT station <= 536.662\nsquared_error = 5.523\nsamples = 2\nvalue = 39.85"] ;
219 -> 220 ;
221 [label="squared_error = 0.0\nsamples = 1\nvalue = 37.5"] ;
220 -> 221 ;
222 [label="squared_error = 0.0\nsamples = 1\nvalue = 42.2"] ;
220 -> 222 ;
223 [label="X3 distance to the nearest MRT station <= 570.623\nsquared_error = 14.469\nsamples = 8\nvalue = 46.613"] ;
219 -> 223 ;
224 [label="X3 distance to the nearest MRT station <= 562.635\nsquared_error = 14.479\nsamples = 6\nvalue = 47.267"] ;
223 -> 224 ;
225 [label="X3 distance to the nearest MRT station <= 559.731\nsquared_error = 17.268\nsamples = 5\nvalue = 47.4"] ;
224 -> 225 ;
226 [label="squared_error = 0.0\nsamples = 1\nvalue = 47.0"] ;
225 -> 226 ;
227 [label="squared_error = 21.535\nsamples = 4\nvalue = 47.5"] ;
225 -> 227 ;
228 [label="squared_error = 0.0\nsamples = 1\nvalue = 46.6"] ;
224 -> 228 ;
229 [label="squared_error = 9.303\nsamples = 2\nvalue = 44.65"] ;
223 -> 229 ;
230 [label="X3 distance to the nearest MRT station <= 617.578\nsquared_error = 47.061\nsamples = 23\nvalue = 39.226"] ;
216 -> 230 ;
231 [label="X3 distance to the nearest MRT station <= 591.715\nsquared_error = 9.662\nsamples = 7\nvalue = 35.629"] ;
230 -> 231 ;
232 [label="X3 distance to the nearest MRT station <= 589.408\nsquared_error = 1.323\nsamples = 2\nvalue = 38.55"] ;
231 -> 232 ;
233 [label="squared_error = 0.0\nsamples = 1\nvalue = 37.4"] ;
232 -> 233 ;
234 [label="squared_error = 0.0\nsamples = 1\nvalue = 39.7"] ;
232 -> 234 ;
235 [label="X3 distance to the nearest MRT station <= 615.27\nsquared_error = 8.218\nsamples = 5\nvalue = 34.46"] ;
231 -> 235 ;
236 [label="X3 distance to the nearest MRT station <= 596.681\nsquared_error = 1.787\nsamples = 3\nvalue = 32.7"] ;
235 -> 236 ;
237 [label="squared_error = 0.0\nsamples = 1\nvalue = 34.1"] ;
236 -> 237 ;
238 [label="X3 distance to the nearest MRT station <= 607.5\nsquared_error = 1.21\nsamples = 2\nvalue = 32.0"] ;
236 -> 238 ;
239 [label="squared_error = 0.0\nsamples = 1\nvalue = 30.9"] ;
238 -> 239 ;
240 [label="squared_error = 0.0\nsamples = 1\nvalue = 33.1"] ;
238 -> 240 ;
241 [label="X3 distance to the nearest MRT station <= 616.921\nsquared_error = 6.25\nsamples = 2\nvalue = 37.1"] ;
235 -> 241 ;
242 [label="squared_error = 0.0\nsamples = 1\nvalue = 39.6"] ;
241 -> 242 ;
243 [label="squared_error = 0.0\nsamples = 1\nvalue = 34.6"] ;
241 -> 243 ;
244 [label="X3 distance to the nearest MRT station <= 641.719\nsquared_error = 55.284\nsamples = 16\nvalue = 40.8"] ;
230 -> 244 ;
245 [label="X3 distance to the nearest MRT station <= 640.673\nsquared_error = 77.666\nsamples = 5\nvalue = 44.04"] ;
244 -> 245 ;
246 [label="X3 distance to the nearest MRT station <= 640.113\nsquared_error = 1.86\nsamples = 3\nvalue = 39.3"] ;
245 -> 246 ;
247 [label="X3 distance to the nearest MRT station <= 628.667\nsquared_error = 0.36\nsamples = 2\nvalue = 40.2"] ;
246 -> 247 ;
248 [label="squared_error = 0.0\nsamples = 1\nvalue = 39.6"] ;
247 -> 248 ;
249 [label="squared_error = -0.0\nsamples = 1\nvalue = 40.8"] ;
247 -> 249 ;
250 [label="squared_error = 0.0\nsamples = 1\nvalue = 37.5"] ;
246 -> 250 ;
251 [label="squared_error = 107.123\nsamples = 2\nvalue = 51.15"] ;
245 -> 251 ;
252 [label="X3 distance to the nearest MRT station <= 713.1\nsquared_error = 38.169\nsamples = 11\nvalue = 39.327"] ;
244 -> 252 ;
253 [label="X3 distance to the nearest MRT station <= 653.881\nsquared_error = 4.34\nsamples = 3\nvalue = 34.1"] ;
252 -> 253 ;
254 [label="squared_error = 0.0\nsamples = 1\nvalue = 31.5"] ;
253 -> 254 ;
255 [label="X3 distance to the nearest MRT station <= 686.485\nsquared_error = 1.44\nsamples = 2\nvalue = 35.4"] ;
253 -> 255 ;
256 [label="squared_error = 0.0\nsamples = 1\nvalue = 34.2"] ;
255 -> 256 ;
257 [label="squared_error = -0.0\nsamples = 1\nvalue = 36.6"] ;
255 -> 257 ;
258 [label="X3 distance to the nearest MRT station <= 725.573\nsquared_error = 36.766\nsamples = 8\nvalue = 41.288"] ;
252 -> 258 ;
259 [label="squared_error = 0.0\nsamples = 1\nvalue = 55.3"] ;
258 -> 259 ;
260 [label="X3 distance to the nearest MRT station <= 743.993\nsquared_error = 9.961\nsamples = 7\nvalue = 39.286"] ;
258 -> 260 ;
261 [label="X3 distance to the nearest MRT station <= 735.384\nsquared_error = 10.107\nsamples = 3\nvalue = 42.0"] ;
260 -> 261 ;
262 [label="squared_error = 0.64\nsamples = 2\nvalue = 39.8"] ;
261 -> 262 ;
263 [label="squared_error = -0.0\nsamples = 1\nvalue = 46.4"] ;
261 -> 263 ;
264 [label="X3 distance to the nearest MRT station <= 755.052\nsquared_error = 0.182\nsamples = 4\nvalue = 37.25"] ;
260 -> 264 ;
265 [label="X3 distance to the nearest MRT station <= 751.419\nsquared_error = 0.109\nsamples = 3\nvalue = 37.433"] ;
264 -> 265 ;
266 [label="squared_error = 0.16\nsamples = 2\nvalue = 37.4"] ;
265 -> 266 ;
267 [label="squared_error = 0.0\nsamples = 1\nvalue = 37.5"] ;
265 -> 267 ;
268 [label="squared_error = -0.0\nsamples = 1\nvalue = 36.7"] ;
264 -> 268 ;
269 [label="squared_error = 0.0\nsamples = 1\nvalue = 25.0"] ;
165 -> 269 ;
270 [label="squared_error = -0.0\nsamples = 1\nvalue = 62.9"] ;
164 -> 270 ;
271 [label="X3 distance to the nearest MRT station <= 930.551\nsquared_error = 31.623\nsamples = 9\nvalue = 36.389"] ;
163 -> 271 ;
272 [label="X3 distance to the nearest MRT station <= 826.827\nsquared_error = 30.628\nsamples = 5\nvalue = 33.2"] ;
271 -> 272 ;
273 [label="squared_error = 1.109\nsamples = 3\nvalue = 37.033"] ;
272 -> 273 ;
274 [label="X3 distance to the nearest MRT station <= 878.18\nsquared_error = 19.802\nsamples = 2\nvalue = 27.45"] ;
272 -> 274 ;
275 [label="squared_error = 0.0\nsamples = 1\nvalue = 23.0"] ;
274 -> 275 ;
276 [label="squared_error = 0.0\nsamples = 1\nvalue = 31.9"] ;
274 -> 276 ;
277 [label="X3 distance to the nearest MRT station <= 953.608\nsquared_error = 4.267\nsamples = 4\nvalue = 40.375"] ;
271 -> 277 ;
278 [label="squared_error = 0.0\nsamples = 1\nvalue = 43.5"] ;
277 -> 278 ;
279 [label="X3 distance to the nearest MRT station <= 966.075\nsquared_error = 1.349\nsamples = 3\nvalue = 39.333"] ;
277 -> 279 ;
280 [label="squared_error = 0.0\nsamples = 1\nvalue = 37.7"] ;
279 -> 280 ;
281 [label="squared_error = 0.023\nsamples = 2\nvalue = 40.15"] ;
279 -> 281 ;
282 [label="X3 distance to the nearest MRT station <= 4007.266\nsquared_error = 54.516\nsamples = 116\nvalue = 25.072"] ;
0 -> 282 [labeldistance=2.5, labelangle=-45, headlabel="False"] ;
283 [label="X3 distance to the nearest MRT station <= 3081.673\nsquared_error = 44.521\nsamples = 90\nvalue = 27.249"] ;
282 -> 283 ;
284 [label="X3 distance to the nearest MRT station <= 1162.735\nsquared_error = 36.585\nsamples = 84\nvalue = 26.614"] ;
283 -> 284 ;
285 [label="X3 distance to the nearest MRT station <= 1145.383\nsquared_error = 54.53\nsamples = 12\nvalue = 22.183"] ;
284 -> 285 ;
286 [label="X3 distance to the nearest MRT station <= 1099.752\nsquared_error = 30.462\nsamples = 6\nvalue = 27.833"] ;
285 -> 286 ;
287 [label="X3 distance to the nearest MRT station <= 1002.495\nsquared_error = 1.908\nsamples = 4\nvalue = 24.05"] ;
286 -> 287 ;
288 [label="squared_error = 0.01\nsamples = 2\nvalue = 25.4"] ;
287 -> 288 ;
289 [label="X3 distance to the nearest MRT station <= 1032.151\nsquared_error = 0.16\nsamples = 2\nvalue = 22.7"] ;
287 -> 289 ;
290 [label="squared_error = 0.0\nsamples = 1\nvalue = 22.3"] ;
289 -> 290 ;
291 [label="squared_error = -0.0\nsamples = 1\nvalue = 23.1"] ;
289 -> 291 ;
292 [label="squared_error = 1.69\nsamples = 2\nvalue = 35.4"] ;
286 -> 292 ;
293 [label="X3 distance to the nearest MRT station <= 1158.721\nsquared_error = 14.752\nsamples = 6\nvalue = 16.533"] ;
285 -> 293 ;
294 [label="X3 distance to the nearest MRT station <= 1157.383\nsquared_error = 16.317\nsamples = 4\nvalue = 17.925"] ;
293 -> 294 ;
295 [label="X3 distance to the nearest MRT station <= 1156.594\nsquared_error = 6.416\nsamples = 3\nvalue = 15.967"] ;
294 -> 295 ;
296 [label="X3 distance to the nearest MRT station <= 1151.37\nsquared_error = 2.102\nsamples = 2\nvalue = 17.55"] ;
295 -> 296 ;
297 [label="squared_error = 0.0\nsamples = 1\nvalue = 16.1"] ;
296 -> 297 ;
298 [label="squared_error = 0.0\nsamples = 1\nvalue = 19.0"] ;
296 -> 298 ;
299 [label="squared_error = 0.0\nsamples = 1\nvalue = 12.8"] ;
295 -> 299 ;
300 [label="squared_error = 0.0\nsamples = 1\nvalue = 23.8"] ;
294 -> 300 ;
301 [label="X3 distance to the nearest MRT station <= 1160.043\nsquared_error = 0.003\nsamples = 2\nvalue = 13.75"] ;
293 -> 301 ;
302 [label="squared_error = 0.0\nsamples = 1\nvalue = 13.8"] ;
301 -> 302 ;
303 [label="squared_error = 0.0\nsamples = 1\nvalue = 13.7"] ;
301 -> 303 ;
304 [label="X3 distance to the nearest MRT station <= 1410.634\nsquared_error = 29.776\nsamples = 72\nvalue = 27.353"] ;
284 -> 304 ;
305 [label="X3 distance to the nearest MRT station <= 1381.078\nsquared_error = 65.471\nsamples = 12\nvalue = 33.217"] ;
304 -> 305 ;
306 [label="X3 distance to the nearest MRT station <= 1250.647\nsquared_error = 20.699\nsamples = 8\nvalue = 28.325"] ;
305 -> 306 ;
307 [label="X3 distance to the nearest MRT station <= 1200.701\nsquared_error = 2.296\nsamples = 3\nvalue = 32.367"] ;
306 -> 307 ;
308 [label="squared_error = 1.102\nsamples = 2\nvalue = 33.25"] ;
307 -> 308 ;
309 [label="squared_error = 0.0\nsamples = 1\nvalue = 30.6"] ;
307 -> 309 ;
310 [label="X3 distance to the nearest MRT station <= 1312.435\nsquared_error = 16.06\nsamples = 5\nvalue = 25.9"] ;
306 -> 310 ;
311 [label="squared_error = 0.0\nsamples = 1\nvalue = 18.3"] ;
310 -> 311 ;
312 [label="squared_error = 2.025\nsamples = 4\nvalue = 27.8"] ;
310 -> 312 ;
313 [label="X3 distance to the nearest MRT station <= 1404.223\nsquared_error = 11.445\nsamples = 4\nvalue = 43.0"] ;
305 -> 313 ;
314 [label="squared_error = 4.149\nsamples = 3\nvalue = 41.333"] ;
313 -> 314 ;
315 [label="squared_error = 0.0\nsamples = 1\nvalue = 48.0"] ;
313 -> 315 ;
316 [label="X3 distance to the nearest MRT station <= 2281.944\nsquared_error = 14.385\nsamples = 60\nvalue = 26.18"] ;
304 -> 316 ;
317 [label="X3 distance to the nearest MRT station <= 1452.76\nsquared_error = 13.529\nsamples = 50\nvalue = 26.868"] ;
316 -> 317 ;
318 [label="X3 distance to the nearest MRT station <= 1431.062\nsquared_error = 6.505\nsamples = 4\nvalue = 24.0"] ;
317 -> 318 ;
319 [label="squared_error = 0.002\nsamples = 2\nvalue = 26.55"] ;
318 -> 319 ;
320 [label="X3 distance to the nearest MRT station <= 1448.504\nsquared_error = 0.003\nsamples = 2\nvalue = 21.45"] ;
318 -> 320 ;
321 [label="squared_error = 0.0\nsamples = 1\nvalue = 21.5"] ;
320 -> 321 ;
322 [label="squared_error = 0.0\nsamples = 1\nvalue = 21.4"] ;
320 -> 322 ;
323 [label="X3 distance to the nearest MRT station <= 1714.912\nsquared_error = 13.363\nsamples = 46\nvalue = 27.117"] ;
317 -> 323 ;
324 [label="X3 distance to the nearest MRT station <= 1678.065\nsquared_error = 8.56\nsamples = 12\nvalue = 28.225"] ;
323 -> 324 ;
325 [label="X3 distance to the nearest MRT station <= 1634.791\nsquared_error = 9.111\nsamples = 9\nvalue = 27.533"] ;
324 -> 325 ;
326 [label="X3 distance to the nearest MRT station <= 1571.775\nsquared_error = 9.121\nsamples = 8\nvalue = 27.888"] ;
325 -> 326 ;
327 [label="X3 distance to the nearest MRT station <= 1557.039\nsquared_error = 10.058\nsamples = 6\nvalue = 27.183"] ;
326 -> 327 ;
328 [label="X3 distance to the nearest MRT station <= 1470.448\nsquared_error = 4.854\nsamples = 5\nvalue = 28.28"] ;
327 -> 328 ;
329 [label="squared_error = 0.49\nsamples = 2\nvalue = 26.3"] ;
328 -> 329 ;
330 [label="X3 distance to the nearest MRT station <= 1521.059\nsquared_error = 3.407\nsamples = 3\nvalue = 29.6"] ;
328 -> 330 ;
331 [label="X3 distance to the nearest MRT station <= 1486.483\nsquared_error = 3.423\nsamples = 2\nvalue = 28.85"] ;
330 -> 331 ;
332 [label="squared_error = 0.0\nsamples = 1\nvalue = 30.7"] ;
331 -> 332 ;
333 [label="squared_error = -0.0\nsamples = 1\nvalue = 27.0"] ;
331 -> 333 ;
334 [label="squared_error = -0.0\nsamples = 1\nvalue = 31.1"] ;
330 -> 334 ;
335 [label="squared_error = 0.0\nsamples = 1\nvalue = 21.7"] ;
327 -> 335 ;
336 [label="X3 distance to the nearest MRT station <= 1604.903\nsquared_error = 0.36\nsamples = 2\nvalue = 30.0"] ;
326 -> 336 ;
337 [label="squared_error = 0.0\nsamples = 1\nvalue = 30.6"] ;
336 -> 337 ;
338 [label="squared_error = 0.0\nsamples = 1\nvalue = 29.4"] ;
336 -> 338 ;
339 [label="squared_error = 0.0\nsamples = 1\nvalue = 24.7"] ;
325 -> 339 ;
340 [label="squared_error = 1.167\nsamples = 3\nvalue = 30.3"] ;
324 -> 340 ;
341 [label="X3 distance to the nearest MRT station <= 1803.604\nsquared_error = 14.472\nsamples = 34\nvalue = 26.726"] ;
323 -> 341 ;
342 [label="X3 distance to the nearest MRT station <= 1757.409\nsquared_error = 9.857\nsamples = 8\nvalue = 24.125"] ;
341 -> 342 ;
343 [label="X3 distance to the nearest MRT station <= 1736.802\nsquared_error = 9.442\nsamples = 3\nvalue = 26.933"] ;
342 -> 343 ;
344 [label="squared_error = 14.062\nsamples = 2\nvalue = 26.75"] ;
343 -> 344 ;
345 [label="squared_error = 0.0\nsamples = 1\nvalue = 27.3"] ;
343 -> 345 ;
346 [label="X3 distance to the nearest MRT station <= 1792.362\nsquared_error = 2.534\nsamples = 5\nvalue = 22.44"] ;
342 -> 346 ;
347 [label="X3 distance to the nearest MRT station <= 1770.793\nsquared_error = 1.427\nsamples = 4\nvalue = 21.85"] ;
346 -> 347 ;
348 [label="squared_error = 0.0\nsamples = 1\nvalue = 20.7"] ;
347 -> 348 ;
349 [label="squared_error = 1.316\nsamples = 3\nvalue = 22.233"] ;
347 -> 349 ;
350 [label="squared_error = -0.0\nsamples = 1\nvalue = 24.8"] ;
346 -> 350 ;
351 [label="X3 distance to the nearest MRT station <= 1901.121\nsquared_error = 13.169\nsamples = 26\nvalue = 27.527"] ;
341 -> 351 ;
352 [label="X3 distance to the nearest MRT station <= 1836.449\nsquared_error = 5.062\nsamples = 2\nvalue = 33.35"] ;
351 -> 352 ;
353 [label="squared_error = 0.0\nsamples = 1\nvalue = 31.1"] ;
352 -> 353 ;
354 [label="squared_error = 0.0\nsamples = 1\nvalue = 35.6"] ;
352 -> 354 ;
355 [label="X3 distance to the nearest MRT station <= 1937.379\nsquared_error = 10.783\nsamples = 24\nvalue = 27.042"] ;
351 -> 355 ;
356 [label="squared_error = 0.0\nsamples = 1\nvalue = 22.9"] ;
355 -> 356 ;
357 [label="X3 distance to the nearest MRT station <= 1951.189\nsquared_error = 10.474\nsamples = 23\nvalue = 27.222"] ;
355 -> 357 ;
358 [label="squared_error = 0.0\nsamples = 1\nvalue = 31.3"] ;
357 -> 358 ;
359 [label="X3 distance to the nearest MRT station <= 2028.03\nsquared_error = 10.16\nsamples = 22\nvalue = 27.036"] ;
357 -> 359 ;
360 [label="squared_error = 0.0\nsamples = 2\nvalue = 23.5"] ;
359 -> 360 ;
361 [label="X3 distance to the nearest MRT station <= 2089.908\nsquared_error = 9.8\nsamples = 20\nvalue = 27.39"] ;
359 -> 361 ;
362 [label="squared_error = 0.0\nsamples = 1\nvalue = 33.4"] ;
361 -> 362 ;
363 [label="X3 distance to the nearest MRT station <= 2102.991\nsquared_error = 8.315\nsamples = 19\nvalue = 27.074"] ;
361 -> 363 ;
364 [label="squared_error = 0.0\nsamples = 1\nvalue = 23.1"] ;
363 -> 364 ;
365 [label="X3 distance to the nearest MRT station <= 2177.734\nsquared_error = 7.851\nsamples = 18\nvalue = 27.294"] ;
363 -> 365 ;
366 [label="X3 distance to the nearest MRT station <= 2125.465\nsquared_error = 6.274\nsamples = 9\nvalue = 28.311"] ;
365 -> 366 ;
367 [label="squared_error = 0.0\nsamples = 1\nvalue = 25.6"] ;
366 -> 367 ;
368 [label="X3 distance to the nearest MRT station <= 2161.203\nsquared_error = 6.025\nsamples = 8\nvalue = 28.65"] ;
366 -> 368 ;
369 [label="squared_error = 8.978\nsamples = 5\nvalue = 29.14"] ;
368 -> 369 ;
370 [label="X3 distance to the nearest MRT station <= 2175.81\nsquared_error = 0.036\nsamples = 3\nvalue = 27.833"] ;
368 -> 370 ;
371 [label="X3 distance to the nearest MRT station <= 2175.387\nsquared_error = 0.04\nsamples = 2\nvalue = 27.9"] ;
370 -> 371 ;
372 [label="squared_error = 0.0\nsamples = 1\nvalue = 27.7"] ;
371 -> 372 ;
373 [label="squared_error = 0.0\nsamples = 1\nvalue = 28.1"] ;
371 -> 373 ;
374 [label="squared_error = -0.0\nsamples = 1\nvalue = 27.7"] ;
370 -> 374 ;
375 [label="X3 distance to the nearest MRT station <= 2234.275\nsquared_error = 7.36\nsamples = 9\nvalue = 26.278"] ;
365 -> 375 ;
376 [label="X3 distance to the nearest MRT station <= 2179.918\nsquared_error = 6.146\nsamples = 6\nvalue = 25.067"] ;
375 -> 376 ;
377 [label="squared_error = 0.0\nsamples = 1\nvalue = 21.8"] ;
376 -> 377 ;
378 [label="X3 distance to the nearest MRT station <= 2182.687\nsquared_error = 4.814\nsamples = 5\nvalue = 25.72"] ;
376 -> 378 ;
379 [label="squared_error = 0.0\nsamples = 1\nvalue = 28.6"] ;
378 -> 379 ;
380 [label="X3 distance to the nearest MRT station <= 2200.87\nsquared_error = 3.425\nsamples = 4\nvalue = 25.0"] ;
378 -> 380 ;
381 [label="squared_error = 4.029\nsamples = 3\nvalue = 25.367"] ;
380 -> 381 ;
382 [label="squared_error = 0.0\nsamples = 1\nvalue = 23.9"] ;
380 -> 382 ;
383 [label="X3 distance to the nearest MRT station <= 2256.685\nsquared_error = 0.987\nsamples = 3\nvalue = 28.7"] ;
375 -> 383 ;
384 [label="squared_error = 0.0\nsamples = 1\nvalue = 27.3"] ;
383 -> 384 ;
385 [label="X3 distance to the nearest MRT station <= 2268.654\nsquared_error = 0.01\nsamples = 2\nvalue = 29.4"] ;
383 -> 385 ;
386 [label="squared_error = 0.0\nsamples = 1\nvalue = 29.5"] ;
385 -> 386 ;
387 [label="squared_error = 0.0\nsamples = 1\nvalue = 29.3"] ;
385 -> 387 ;
388 [label="X3 distance to the nearest MRT station <= 2691.177\nsquared_error = 4.46\nsamples = 10\nvalue = 22.74"] ;
316 -> 388 ;
389 [label="X3 distance to the nearest MRT station <= 2645.213\nsquared_error = 1.81\nsamples = 8\nvalue = 23.462"] ;
388 -> 389 ;
390 [label="X3 distance to the nearest MRT station <= 2439.319\nsquared_error = 1.251\nsamples = 7\nvalue = 23.143"] ;
389 -> 390 ;
391 [label="X3 distance to the nearest MRT station <= 2348.502\nsquared_error = 0.923\nsamples = 4\nvalue = 23.65"] ;
390 -> 391 ;
392 [label="squared_error = 0.36\nsamples = 2\nvalue = 23.8"] ;
391 -> 392 ;
393 [label="squared_error = 1.44\nsamples = 2\nvalue = 23.5"] ;
391 -> 393 ;
394 [label="X3 distance to the nearest MRT station <= 2542.555\nsquared_error = 0.889\nsamples = 3\nvalue = 22.467"] ;
390 -> 394 ;
395 [label="squared_error = 1.0\nsamples = 2\nvalue = 22.8"] ;
394 -> 395 ;
396 [label="squared_error = 0.0\nsamples = 1\nvalue = 21.8"] ;
394 -> 396 ;
397 [label="squared_error = 0.0\nsamples = 1\nvalue = 25.7"] ;
389 -> 397 ;
398 [label="X3 distance to the nearest MRT station <= 2892.784\nsquared_error = 4.623\nsamples = 2\nvalue = 19.85"] ;
388 -> 398 ;
399 [label="squared_error = 0.0\nsamples = 1\nvalue = 17.7"] ;
398 -> 399 ;
400 [label="squared_error = -0.0\nsamples = 1\nvalue = 22.0"] ;
398 -> 400 ;
401 [label="X3 distance to the nearest MRT station <= 3350.447\nsquared_error = 71.062\nsamples = 6\nvalue = 36.133"] ;
283 -> 401 ;
402 [label="X3 distance to the nearest MRT station <= 3128.25\nsquared_error = 7.29\nsamples = 2\nvalue = 43.9"] ;
401 -> 402 ;
403 [label="squared_error = 0.0\nsamples = 1\nvalue = 41.2"] ;
402 -> 403 ;
404 [label="squared_error = -0.0\nsamples = 1\nvalue = 46.6"] ;
402 -> 404 ;
405 [label="X3 distance to the nearest MRT station <= 3864.268\nsquared_error = 57.707\nsamples = 4\nvalue = 32.25"] ;
401 -> 405 ;
406 [label="X3 distance to the nearest MRT station <= 3776.243\nsquared_error = 55.476\nsamples = 3\nvalue = 34.567"] ;
405 -> 406 ;
407 [label="squared_error = 0.0\nsamples = 2\nvalue = 29.3"] ;
406 -> 407 ;
408 [label="squared_error = 0.0\nsamples = 1\nvalue = 45.1"] ;
406 -> 408 ;
409 [label="squared_error = -0.0\nsamples = 1\nvalue = 25.3"] ;
405 -> 409 ;
410 [label="X3 distance to the nearest MRT station <= 5954.161\nsquared_error = 15.896\nsamples = 26\nvalue = 17.535"] ;
282 -> 410 ;
411 [label="X3 distance to the nearest MRT station <= 4562.719\nsquared_error = 14.127\nsamples = 24\nvalue = 18.021"] ;
410 -> 411 ;
412 [label="X3 distance to the nearest MRT station <= 4479.814\nsquared_error = 15.036\nsamples = 21\nvalue = 18.233"] ;
411 -> 412 ;
413 [label="X3 distance to the nearest MRT station <= 4080.716\nsquared_error = 14.64\nsamples = 19\nvalue = 17.8"] ;
412 -> 413 ;
414 [label="X3 distance to the nearest MRT station <= 4077.077\nsquared_error = 21.142\nsamples = 7\nvalue = 18.757"] ;
413 -> 414 ;
415 [label="X3 distance to the nearest MRT station <= 4070.661\nsquared_error = 10.476\nsamples = 6\nvalue = 17.333"] ;
414 -> 415 ;
416 [label="squared_error = 10.906\nsamples = 5\nvalue = 17.86"] ;
415 -> 416 ;
417 [label="squared_error = -0.0\nsamples = 1\nvalue = 14.7"] ;
415 -> 417 ;
418 [label="squared_error = 0.0\nsamples = 1\nvalue = 27.3"] ;
414 -> 418 ;
419 [label="X3 distance to the nearest MRT station <= 4109.143\nsquared_error = 10.001\nsamples = 12\nvalue = 17.242"] ;
413 -> 419 ;
420 [label="squared_error = 5.595\nsamples = 6\nvalue = 16.417"] ;
419 -> 420 ;
421 [label="X3 distance to the nearest MRT station <= 4166.81\nsquared_error = 13.046\nsamples = 6\nvalue = 18.067"] ;
419 -> 421 ;
422 [label="squared_error = 0.0\nsamples = 1\nvalue = 24.7"] ;
421 -> 422 ;
423 [label="X3 distance to the nearest MRT station <= 4431.018\nsquared_error = 5.094\nsamples = 5\nvalue = 16.74"] ;
421 -> 423 ;
424 [label="X3 distance to the nearest MRT station <= 4305.057\nsquared_error = 5.887\nsamples = 4\nvalue = 17.05"] ;
423 -> 424 ;
425 [label="squared_error = 7.796\nsamples = 3\nvalue = 16.933"] ;
424 -> 425 ;
426 [label="squared_error = -0.0\nsamples = 1\nvalue = 17.4"] ;
424 -> 426 ;
427 [label="squared_error = 0.0\nsamples = 1\nvalue = 15.5"] ;
423 -> 427 ;
428 [label="X3 distance to the nearest MRT station <= 4515.024\nsquared_error = 0.062\nsamples = 2\nvalue = 22.35"] ;
412 -> 428 ;
429 [label="squared_error = 0.0\nsamples = 1\nvalue = 22.6"] ;
428 -> 429 ;
430 [label="squared_error = -0.0\nsamples = 1\nvalue = 22.1"] ;
428 -> 430 ;
431 [label="X3 distance to the nearest MRT station <= 5058.894\nsquared_error = 5.236\nsamples = 3\nvalue = 16.533"] ;
411 -> 431 ;
432 [label="squared_error = 0.0\nsamples = 1\nvalue = 13.4"] ;
431 -> 432 ;
433 [label="squared_error = 0.49\nsamples = 2\nvalue = 18.1"] ;
431 -> 433 ;
434 [label="X3 distance to the nearest MRT station <= 6442.152\nsquared_error = 0.25\nsamples = 2\nvalue = 11.7"] ;
410 -> 434 ;
435 [label="squared_error = 0.0\nsamples = 1\nvalue = 12.2"] ;
434 -> 435 ;
436 [label="squared_error = 0.0\nsamples = 1\nvalue = 11.2"] ;
434 -> 436 ;
}